digraph Tree {
node [shape=box, style="rounded", color="black", fontname=helvetica] ;
edge [fontname=helvetica] ;
0 [label="item_cnt_month_mean <= 4.1\nmse = 6.6\nsamples = 1017203\nvalue = 2.0"] ;
1 [label="item_cnt_month_mean <= 2.1\nmse = 1.8\nsamples = 927717\nvalue = 1.6"] ;
0 -> 1 [labeldistance=2.5, labelangle=45, headlabel="True"] ;
2 [label="item_cnt_month_mean <= 1.4\nmse = 0.4\nsamples = 745217\nvalue = 1.3"] ;
1 -> 2 ;
3 [label="mse = 0.1\nsamples = 496761\nvalue = 1.1"] ;
2 -> 3 ;
4 [label="mse = 0.9\nsamples = 248456\nvalue = 1.7"] ;
2 -> 4 ;
5 [label="item_cnt_month_mean <= 2.9\nmse = 5.5\nsamples = 182500\nvalue = 2.8"] ;
1 -> 5 ;
6 [label="mse = 3.4\nsamples = 111583\nvalue = 2.4"] ;
5 -> 6 ;
7 [label="mse = 8.2\nsamples = 70917\nvalue = 3.4"] ;
5 -> 7 ;
8 [label="item_cnt_month_mean <= 10.3\nmse = 34.1\nsamples = 89486\nvalue = 6.6"] ;
0 -> 8 [labeldistance=2.5, labelangle=-45, headlabel="False"] ;
9 [label="date_block_num <= 11.5\nmse = 24.6\nsamples = 74001\nvalue = 5.6"] ;
8 -> 9 ;
10 [label="mse = 31.2\nsamples = 23173\nvalue = 7.2"] ;
9 -> 10 ;
11 [label="mse = 19.7\nsamples = 50828\nvalue = 4.8"] ;
9 -> 11 ;
12 [label="item_cnt_month_mean <= 22.6\nmse = 52.6\nsamples = 15485\nvalue = 11.3"] ;
8 -> 12 ;
13 [label="mse = 48.2\nsamples = 12256\nvalue = 10.2"] ;
12 -> 13 ;
14 [label="mse = 47.0\nsamples = 3229\nvalue = 15.4"] ;
12 -> 14 ;
}